34 128
34 -0.0020705708 -0.001775867 0.0024159015 0.0030361603 0.0034662732 -0.001884172 0.003595288 -0.000956649 -0.0026811615 3.9843388e-05 -0.0038137222 -2.8405868e-05 0.0011431212 -0.00056131225 -0.0024467774 -0.0015509535 0.0037078466 0.0008983177 0.002861802 0.0028959406 4.83193e-05 -0.0007895305 0.0037992357 -0.0025373204 0.0004858431 -0.0036428713 0.0024630977 -0.0015555068 -0.0012078455 0.0024778522 0.00377691 0.0010607666 -0.002646378 0.0011224644 0.0014109507 0.002885221 0.0038274631 0.0016113739 0.0006295046 0.0017947956 -0.0019499148 0.0034666986 0.002916561 0.0016329109 -0.0011923249 -0.0031393284 0.0024363415 -0.002642657 0.0022589508 0.002986722 0.0017270541 0.0009148841 0.0020214147 0.0029338049 -0.0023651572 -0.0035961876 0.0001496637 0.0004923606 4.6504985e-05 -0.001245948 -0.001714715 0.0022593085 -0.0038544077 0.0007810903 0.00031065848 -0.0020674728 -0.0019396548 -0.0036543198 0.003665791 0.00039729336 -0.0016772161 -0.0003444506 -0.0034347798 0.002676591 2.9670464e-05 -0.0005037198 -0.0032227796 0.0038034383 0.0010773849 0.0019683915 -0.003101149 -0.0018665957 0.0014150437 -0.0020757616 0.002489891 0.0029743216 -0.00034765262 0.0010982362 -0.0026562754 0.0019031037 -0.003261102 0.0005350423 -0.0007364405 -0.00045682307 -0.0014721924 0.0022191855 -0.0014954973 0.0028768652 -0.0016470575 -0.0011600719 -0.0014025291 0.0036047671 -0.00034751673 -0.002953779 -0.0037451992 0.00014083814 0.002505061 -0.0009919014 -0.0008859477 0.001620248 0.0018892197 0.0004939779 0.00024068807 0.0034790505 -0.00058088725 -0.0013130388 0.0013366485 0.0034331726 -0.0009842679 0.0035073312 -0.0005126206 -0.0009942496 0.0017140432 0.0004571848 -0.0030562112 0.002666471 0.0020863712 0.00084629166
33 -0.000211993 -0.0023828598 0.00078686455 0.0033911327 0.003078861 -0.003420966 -0.00082572346 0.003712555 0.0020740922 -0.0003192455 0.002026012 -0.0001043505 0.00040132905 -0.002883713 0.0031203616 0.0019426381 -0.001044964 0.0027004613 -0.0030826181 -0.0003310969 0.003056256 -0.00017488246 0.0027455378 -0.0028772661 -0.0024471215 -0.00022906568 -0.0022708895 0.00014143575 0.001998164 0.0017534866 -0.0005920264 0.003270593 -0.0003589724 0.0035476617 -0.0035072675 -0.0027616133 -0.00048403133 -0.00016619098 -0.003527581 0.0033336862 -0.00135622 0.0016923965 0.0019718641 -0.0023040413 -0.0015195786 0.0018508036 -0.0010637227 -0.0028555754 -0.002932792 -0.0004381326 -0.0011198603 0.003322884 0.0022633465 -0.001826798 -0.0038859094 0.001437396 -0.002118459 0.0011880442 0.0030230382 0.002385303 0.003774915 -0.0038719445 -0.0024182366 0.0018168302 0.002925895 -0.0028429464 0.0037491221 -0.0021611007 0.0016496992 0.0026763163 0.0033534875 -0.00051531894 0.0012579429 0.0018108741 -0.0023143776 0.0025232052 0.0011993172 -0.000398337 0.001218236 -0.00045506065 0.0037745705 -0.0019443757 -0.001517369 -0.0023679559 0.0005233958 0.0026694052 -0.0012464798 -0.0004318047 9.374288e-05 0.0011606691 0.003203659 0.0028435485 -0.00034365436 -0.0017372842 0.002921531 0.0034351023 -0.002599955 -0.003131513 0.0033369656 -0.0011788553 -0.0029029115 -0.0026394236 -0.0015191025 0.003839854 0.00137673 -0.0030799857 0.0012461974 0.0009987709 0.0022336207 -0.0018680119 -0.0010147095 0.00057570485 0.0009993531 -0.002905054 0.001699279 0.0007385503 6.496802e-05 -0.0032903152 -0.0030592126 -0.0032602437 0.0017940815 -0.00029461642 0.002598584 0.0010479655 0.0013205924 -0.0013773576 -0.0025558898 -0.0024510534
8 0.0005402372 -0.0035082623 0.0020833877 0.00086515164 -0.0025439414 0.0013521465 0.0019694434 0.0007872319 -0.00020253545 0.0028922127 -0.0017386517 1.2877183e-05 -0.0024493139 4.6172103e-05 0.0030379011 -0.0025012444 0.0021645082 0.00015349365 0.0036709101 0.0024286094 -0.0011676276 -0.00015400951 -0.000590367 -0.003605511 0.0011359144 0.003865246 -0.000220022 0.0027413524 -0.0017013417 0.002347029 -0.0009578098 0.00047397197 0.0009300959 0.002352738 -0.0012771422 -0.0012120112 0.0033433686 -0.0009035503 0.0032853102 0.0035998595 -0.0011328644 0.0001817646 -0.0027083952 0.0027882708 0.0009973149 0.0027672322 -0.0025397567 -0.00058270735 -0.0015672002 0.0020853714 -0.0020754696 -0.0022656673 0.003896495 0.0023753492 -0.0029791093 6.777513e-05 -0.0035748207 -0.0012407919 -0.0019124389 -0.0022753857 -0.0022358177 -0.0032309901 0.000761979 0.0012096941 0.0019144529 -0.0027762633 0.003084629 -0.0015002714 -0.000255715 -0.0028276222 -0.0028201728 -0.0015850676 -0.0020277887 -8.244095e-05 -0.000685187 0.0012778895 -0.0024488608 -0.0008260406 -0.0005890114 -0.00035806067 0.002304016 -0.0034031114 -0.002397476 0.0017751637 -0.0032617936 0.0037588957 0.0026823487 0.0008074366 0.0011026389 -0.0026922836 0.0018425045 -0.002385286 -0.0006090379 -0.00028533398 -0.0012067602 -0.0027155962 -0.0012036063 -0.0035174093 -0.0025136066 -0.0031278548 0.0029255548 -0.003294795 -0.0038244587 -0.0013049517 0.0030223744 -0.0030767461 0.002000294 -0.003871751 -0.0017267287 -0.0022831971 -0.003786117 0.0018909693 0.001993929 -0.00026619135 -0.003757752 0.0031623833 -0.0015830036 -0.0011234921 -0.002129427 -0.00014655836 -0.0020648332 -0.003234124 0.0031720386 0.0007540928 0.0019693584 -0.0036279385 0.002609331 -0.0024265859
32 -0.001857453 -0.0028625152 -0.0037254672 0.00025195052 0.00036098604 0.0004294667 0.0024149276 -0.0008084155 -0.0018684749 0.0008025228 -0.0010334447 0.0019269385 -0.0014467954 0.0011579561 0.00034322144 0.0023431603 0.0011988115 -0.0012159715 -0.0036162608 0.00034884023 -0.00017331773 0.002791212 -0.0031111124 -0.001992548 -0.003064339 -0.0011381817 -0.0016926242 0.0036437167 0.0014042332 -0.0021546232 -0.0010601502 -0.00043499295 0.0037729219 0.00234511 -0.0022116145 0.00037037834 0.002898366 0.0034687521 -0.000748467 -0.002384113 -0.0026790635 0.001495187 -0.00050717115 -0.00070231286 -0.0031695715 -0.0012910005 0.00288792 0.0016286749 -0.00057299034 -0.0033024792 -0.00033096303 0.0012615306 -0.0013089284 0.0018236142 -0.00294625 -0.0025050556 -0.0015120629 -0.00025013444 -6.0297247e-05 -0.000982524 0.00093571283 0.00042536575 -0.003026351 0.0033955495 -0.0033501703 -0.00096613006 -0.0024972532 0.0025789263 0.00067970075 -0.0034761345 -0.00317132 0.0029766446 0.0010664739 -0.0014810074 -0.0022656615 0.0025486383 0.0009107421 0.0006342992 -0.00035389652 -0.00015010424 -0.00096105057 -0.0015843073 0.0030293453 0.00043865954 1.9408377e-05 0.0034721026 0.0016363102 0.00079839124 0.00121476 -0.0026092203 0.0010510129 0.0025876232 0.0019492651 -0.0025026 0.0015026049 -0.00012733627 0.0003400951 -0.00088874105 -0.0036126617 -0.0036688906 0.0018160916 -0.0026025197 -0.003122139 -0.0022299003 0.0024084358 0.0038418083 0.0030735196 -0.002403677 -0.00343894 0.0017350349 0.0006336994 -0.0022425202 0.0021772967 0.002955267 0.0028755316 0.0022412916 -0.00049501576 0.0030899139 0.0033554255 -0.0014777686 -0.0013901955 -0.0037116064 -0.000255132 0.0019196753 0.0030235203 -0.0035456375 -0.0036795172 0.0027180098
4 -0.0001400501 0.0037145596 8.313997e-05 0.0016446637 0.0023993615 -0.0025917243 -0.0034483946 0.0038755988 0.00055162836 -0.0021990999 0.0034494104 0.0009348651 0.0026884356 -0.0010246247 -0.0010323845 -0.0008946399 0.0008368252 -0.0024085843 0.0011572995 0.0023503634 0.0013568469 -0.0008010908 -0.0023700218 -0.0014570656 0.0018937647 0.00086181733 -0.0025184706 0.002049869 0.0032851077 -0.0015875231 -0.0019383647 -0.0025794022 -0.00052098406 -0.0004387398 -0.0016772297 -0.0011058779 0.0024568883 0.0022699728 0.0014283751 0.001926715 0.0012356328 -0.0031991731 0.0032688 0.0034316832 0.0016461266 -0.0032093632 -0.0009162203 -0.0031606485 -0.0025741204 -0.002449325 0.0028633224 -0.0030591413 0.0008403929 0.0014398143 -0.0020210843 0.0014243708 0.0019043625 0.0005330243 0.0016574478 -0.001606775 0.0037688725 -0.0020579728 0.0014822308 0.00034673698 0.002545494 0.0035945533 -0.0038293456 0.0017429386 -0.000107901935 -0.0014107616 0.0005114209 0.001275625 0.0026808386 -0.0035251314 0.0020630357 -0.0011384246 0.0035545982 0.0021602204 -0.0016565603 0.0030918662 0.0012805869 -0.0038790891 -0.00077844807 0.0011177035 0.0021428117 -0.00070851797 0.0038095054 -0.0021493114 0.0027659794 0.001290122 -0.0028649585 -0.00075018697 -0.0035682637 -0.0013796708 -0.0012330789 0.0014755446 -0.0032351282 -0.00195883 0.0003518104 -0.0002667817 -0.002594137 0.0010500222 0.0038694893 0.003269116 -0.0031734637 0.0019196307 -0.0024114477 0.0014767881 -0.0015601933 -0.0011064928 0.0032229098 -0.0011369204 0.00031345274 0.0011538356 -3.206033e-05 0.0026606545 -0.00013971921 0.0013711621 -0.00059523346 -0.00014006437 0.0019632974 0.0009646657 -0.0036202727 -0.0039028255 -0.0036129837 0.0009666616 0.0034883984 0.0023989216
17 -0.00041699753 -0.0009140957 0.000793438 0.002547907 -0.0037737489 -0.002626471 0.002221038 0.0020059813 0.0036525172 0.003211139 0.0014641227 0.003875581 0.0018483556 0.0022754099 -0.0020467173 0.0029468676 0.00011328018 -0.003745643 -0.0019710104 0.0023022427 -0.00017350394 -0.0035338204 0.0027261658 -0.0025451593 0.0030397777 0.0023376362 -0.00114699 -0.00012965141 0.001845822 0.0030203739 0.0009784601 0.00023332001 0.0021254853 -0.0008153672 -0.0018030002 -0.0031336574 0.0024645329 0.0017414711 -0.0008417391 0.002093861 -0.0009701052 -0.003489304 -0.0021937115 0.0026053875 -0.0017813386 -0.0018226495 0.0014699876 0.0024254832 -0.0006004826 0.0016629767 -0.0020157723 -0.002048442 0.00054432754 -0.0038146756 0.002221464 -0.0014289625 -0.0036042237 0.0037103435 0.0027227644 -0.003518975 0.000988977 -0.0012201637 0.0019669682 -0.0016781958 0.0006864019 0.002785678 -0.000506772 -0.00075816683 0.00085275737 0.0017921365 -0.0027010867 -0.0006629098 0.00044509993 -0.0021857154 0.0027347174 0.0038633742 -0.0026211385 -0.0023575893 0.0010239627 -0.00335411 0.0012845214 0.00019641245 0.0032277077 0.003226711 -0.0034388567 -7.2088624e-05 0.0032650742 -0.0019402759 0.003884874 -0.000934274 -0.0029977895 -0.0004310112 -0.00074072496 0.0033125174 -0.0012160405 -0.00052340585 0.0034436353 0.0016619109 0.0024679066 0.0024757653 0.0018596802 -0.0006746096 -0.002030297 0.0020010727 0.00027947035 -0.001397852 0.0005869777 -0.0025879163 -0.0021462128 0.0030965318 -0.00015945578 0.0007752793 0.003749135 0.0016313792 0.00034270537 -0.00023682663 -0.001037338 0.003369787 -0.0006246293 -0.0034920766 0.0030858447 0.0029717588 0.0021512322 0.0023124446 -0.003730296 -0.0018817643 -0.00011123295 0.0027382956
26 0.0031170126 0.0022174441 0.00083012844 -0.001280877 0.0016885209 -0.0021868546 0.0018193239 -0.0015546192 -0.00383088 -0.0016846095 -0.0013541203 -0.0032757195 0.0033881036 -0.0028430473 -0.001194578 0.0025965988 0.0015673339 -0.00010180041 -0.0013166681 0.0014464355 0.0034492642 0.0008386515 0.0032522734 0.0019319775 -0.0018827177 -0.0017393696 -0.0036966158 -0.0023468852 -0.0019182672 0.0030836803 0.002113234 0.00076804875 0.001238692 -0.0034753806 -0.0035916131 -0.0030919998 0.0017716374 -0.0013366749 -0.0014739773 -0.0011572845 -0.00037680147 -0.0032390396 -0.0029724995 -0.0011306369 -0.0018117765 0.003890191 -0.0033493983 -3.4138698e-06 -0.0015892077 0.0029589485 0.003275675 0.0021469798 -0.0016247834 -0.0030541641 0.000120131015 -0.0006952191 0.0015209217 0.0010466963 -0.0032120738 0.00056298875 0.0017951747 -0.0016800164 0.00057526864 0.0034838237 0.00065740163 0.00033252622 0.001763903 -0.0032060598 0.00092060707 0.00075685995 0.00043800077 0.00059955125 -0.002253399 -0.0007555338 0.0020786885 -0.0027522205 -0.0038363577 -6.0840403e-06 -0.0010991205 -0.0014096939 -0.0027734926 0.0020105243 0.0010521578 0.0013551502 0.0021468773 0.0023580662 -0.0034644464 0.00056450674 -0.00030657343 -0.0002616834 0.0012090532 0.00038017496 0.0028119585 0.0037518165 0.002642729 -0.0017640862 -0.0008993886 0.0011266051 0.002851662 -0.0020447918 0.0012591192 -0.00024050644 0.00065247406 0.0026202037 0.0015264102 0.0017583327 0.0027443592 0.000875417 0.0037546793 0.0034403324 -0.003044698 -0.0016408316 0.0008784673 0.002893316 0.0011689339 -9.364181e-05 0.0011757726 -0.0021906807 0.0038496084 -0.0038891933 -0.00019690169 -0.0025230576 -0.002216303 -0.0034505639 0.0010789873 0.0029453055 -0.001802922 -0.0035763758
3 -0.003474261 0.00078556896 0.0035663876 0.0006543356 0.0011118762 -0.00027688363 0.0020846669 -2.0119522e-05 -0.003688151 -0.0014220193 0.0016895991 -0.0029013532 -0.003791173 -0.0037470332 -0.0017256967 -0.0026891206 0.003680244 -0.0028270762 -0.0006553181 -0.0021529836 -0.0031662474 0.0014653497 -0.00089870027 0.003700931 0.003726161 -0.001612273 -6.384957e-05 0.0027266182 0.0039182976 0.0035259873 -0.0020311377 -0.002327224 -0.003389791 0.0035222985 -0.0010347345 -0.0030224442 0.0011510454 0.0023802896 0.0012472011 0.0021220006 0.0007067383 -0.0038068888 0.00097167573 0.0032821414 -0.0018187739 -0.00073236803 0.0026389468 -0.0026255434 -0.0039055308 0.0027149469 0.0033927045 -0.0014335032 -0.0037061735 0.0010090027 -0.0024494643 -0.0023623765 -0.001923864 0.001072857 -0.0017832337 0.0036159763 -0.0035497844 0.001783687 -0.0010658104 0.0035954723 0.00020163407 -0.002556519 0.0034926084 0.0025495482 0.0010618021 -0.0029068016 0.002490628 0.00082312315 -0.0023073778 0.002551521 0.001610513 -0.0015743717 0.0035614322 -0.00097133435 0.0035757618 -0.0008670038 -0.00032820788 0.0026484258 -0.0012708976 -0.0019918822 0.0014546823 0.0016181595 -0.0002902254 0.001154476 -0.002433859 -0.0009278396 -0.0016489385 0.0019316763 -0.0011466758 0.00063902204 -0.0033159684 0.002627831 -0.0034404234 0.0031478223 0.0033771151 0.0002867469 -0.003446169 0.0009795881 -0.0033850793 -0.0010762706 0.0017485572 0.003898619 -0.00045823466 -0.00046298993 0.002886346 -0.0020095464 0.0025224208 -2.0841908e-05 0.0007707408 0.00069591135 0.00085223466 0.0018724675 -0.00087255414 0.002164852 0.00317733 0.0003545452 -0.0018828339 -0.0033765251 -0.0014081688 -0.00074193144 -0.0026473831 0.00066930836 0.0011715625 0.0016463787
7 0.0035782577 0.0003565026 -0.0034339405 -0.00091174815 -0.0030701305 0.0025795987 0.000765584 0.0009843807 0.0036275298 -0.0008045918 -0.0017582522 0.00058881973 0.0008549147 -0.003858781 0.0027582687 0.00067902566 0.00088902743 -0.00034957417 -0.002764362 -0.0007294507 0.0009633281 -0.0018537402 0.00045017106 0.0029318044 0.003220764 -0.0027801683 -0.0035828685 -0.0020097478 -0.0023897677 -0.0014405448 0.002637492 0.0032289433 -0.0024464424 -0.003407438 -0.0025127844 -0.00034875964 -0.0022783778 -0.0036020628 -0.001323859 -0.002251662 -0.0037216262 0.0012119632 0.0013537095 0.002298933 6.3426436e-05 0.0020543472 0.0013536474 -3.9633505e-05 0.0030163215 0.0007433271 -0.0024083746 0.0029204935 -7.760177e-05 0.0033912682 -0.002662114 0.0021980111 0.00049597595 -0.0024455173 0.0028719567 0.0036412766 0.0013685504 0.0002799236 0.00083987805 0.0019605851 -0.0011304984 0.0014751819 0.0013453751 0.0037342699 0.00047099558 -0.002791084 -0.0014184081 0.0026512647 -0.0030007425 0.0015116687 0.0011346954 0.0010659936 -0.0008933702 0.0018955282 0.00016530942 -0.0026675337 0.0005475365 0.0032422883 -0.000965844 0.0036547573 -0.0012895882 -0.0029020768 -0.0030507345 0.00079757837 -0.0020110265 0.0023669004 0.0035989264 -0.00019951959 0.0030153682 -0.0007856304 -0.0008020776 0.0026922175 0.0028669056 -0.003516808 -0.0027878855 0.0005704173 -0.0016440344 0.0012745123 -0.0034808612 -0.0009780434 -0.0010592641 -0.003201474 -0.0031486321 0.0003407236 0.0033768697 0.00067806186 0.0015297107 0.0036553014 -0.0015950038 -0.0029868914 -0.0023472856 -0.0005808992 -0.00071251945 -0.0022696336 -0.003210356 0.0036061646 -0.0018497236 0.0032781775 0.0030265108 0.0011159286 -0.0024464675 -0.0021229007 0.003369094 0.0032616712
2 0.0029958438 -0.00052488147 -0.0006796751 -0.0010433343 -0.0010554327 0.00022726483 0.0015657484 0.0022972964 -0.0034824458 -0.00046304206 -0.0012156306 0.0020578005 0.002067374 -0.002449378 -0.0006688789 -0.0028974921 -0.0019830517 0.002092439 -0.000563988 -0.00027625865 0.0007542318 0.00087529793 0.00284145 -0.00035816766 -0.0029036538 -0.00076780625 -0.0017253896 0.00047602862 0.0025158501 0.001432612 0.0028098894 -0.0014942959 -0.0032149432 0.0032212487 -0.0032606851 0.00231959 0.0005455621 -0.0028849063 0.0015795289 -0.0010763056 0.0017248502 0.0026324764 0.0017907025 -0.0006477189 -0.0023814137 -0.0008149369 -0.002063627 -0.0011683084 0.0015018695 -0.0019781217 0.0007927459 -0.0032407115 0.001709708 0.0037465077 -0.0038500621 -0.00010719381 0.0023536906 0.003338861 -0.002235968 0.0035336353 -0.0022650808 0.002053753 -0.0005942522 -0.0028711234 -0.001115089 0.0031603074 -0.0009219852 -0.0015761186 -0.0034306357 -0.0015139428 -0.0010363597 -0.00072309666 0.0032081585 -0.0005467668 -0.0014576645 0.002584006 0.0013990737 -0.0016442859 0.00092884136 -0.001111473 -0.001988313 -0.0020800629 -0.003290674 0.00054832693 0.0025268649 0.003136751 -0.0007724017 -0.00043518387 0.0032609897 -0.002484434 0.001839296 0.0029673984 2.3673418e-05 -0.003798157 -0.003784946 0.0009961186 -0.0015087695 -0.0018619099 -0.0024555572 0.0028855323 0.0026411642 -0.0021872914 0.0017136069 -0.0037768953 -0.00042127998 -0.0032659075 0.003881901 0.003544533 -0.0027787257 0.0006519418 -0.0027247963 0.0016278422 0.0016460926 -0.0015190288 -0.0027929817 -0.0007844482 0.0011279308 0.0016045731 -0.0028479921 -0.0012268567 -0.0012115373 -0.0018776115 0.0012844171 -0.0034385545 0.0015386386 0.0016595661 0.0037864475 0.00030330318
30 0.0032358314 -0.0032908027 -0.0032324903 0.0037689095 -0.0036959806 0.0013357779 0.0027760093 -0.0017277369 -0.0004465617 0.0017969977 -0.0038411594 -0.00010553568 -0.0012263681 -0.0017629369 -0.0017728037 -0.002495756 0.0011496787 -0.00040730866 -0.0037602587 0.0035819076 0.0009590312 -0.0020383717 0.0037253976 -0.0037556696 0.0014562452 -0.0021678298 0.002800001 -0.00020591723 -0.003280544 0.0019196543 -0.000554599 -0.0025053723 0.0009818808 -0.0017851655 -0.002314447 0.0030040713 0.0002621816 0.0027434167 0.0009882628 -0.0033779682 0.00019338232 0.0014042429 0.0011898449 0.0033419868 0.00031028304 0.0006565861 0.00013664723 -0.0030390113 -0.0006658511 0.0015387016 -0.0004694364 0.002402449 0.002006471 -0.0038225548 0.0022285497 0.0012072937 -0.0038347684 0.0012229641 0.0022787193 0.0004783024 0.0009397047 -0.0030904287 0.003133741 0.00085207965 0.0037136292 -0.0020264124 -0.0020178389 -0.0013688753 0.0018808644 -0.0024823418 0.001486329 0.00048812787 6.632622e-05 -0.000115736446 0.00039813755 -0.0020493504 0.00024801434 0.0033263238 0.00012245955 0.003157353 -0.0038734137 -0.0020006555 -0.003553049 -0.0006772404 0.0007087018 0.0029152085 -0.0029733134 0.0014679207 -0.0022068627 0.0011370704 0.0029955888 -0.0034088024 0.0004371187 0.002019888 0.0033439484 0.001267607 -0.0024983876 0.003100099 0.00071743864 -0.0022397852 0.003728253 0.00088903774 -0.0018233194 -0.0038276175 -0.0012144119 -0.0010028268 0.0018161297 0.0011640957 -0.0036937702 -0.0006377478 -0.0022570067 -0.0038746502 -0.0024637408 -0.002445639 0.0033855513 -0.0017378412 -0.0030694134 -0.0010909664 -0.0013749248 0.0037381717 -0.003003295 0.0013469605 0.00031128654 0.0019253982 0.0026848908 0.0020150172 0.0038090048 0.00075212354
24 0.002212549 0.0016102132 0.002937808 0.0036344402 0.0011194199 -0.0008174782 -0.0003430972 0.0007936605 0.0011966963 0.0014433888 0.0033978287 -0.00030893294 0.002811384 -0.003121592 -0.00030607622 -0.0017882966 -0.0013440537 -0.0007130619 0.0009936416 -0.0009754643 0.00076447584 0.0010901634 0.0002019549 0.0033707265 0.001292956 0.0030204721 -0.00097528734 -0.0024302767 -0.0006145782 0.0024150254 -0.0033508756 0.0005606693 -0.0036360845 -0.0013006969 0.0012427759 -0.0009920556 0.0038804533 -0.0021358544 -0.0003072811 -0.0023650113 0.001085038 0.0035405662 -0.00015284758 0.0018139298 -0.00061721617 0.001585706 -0.0026204116 0.0031706172 0.0010866714 -0.00243923 0.003680239 0.001026716 -0.0033140294 0.0035110349 0.0031604958 0.003275713 0.003021617 0.00050193904 -0.00094828225 -0.0015806129 -0.00022511356 -0.00053014915 0.0012270099 0.0003257825 -0.0030609122 -0.0021139516 -0.0011151794 0.0019370819 -0.0012777006 0.0023842503 0.001236861 0.0022312333 -0.0032142864 0.00044172292 0.00026667272 -0.00031969592 -0.0032150308 -0.0027384653 -0.0005592034 0.003491724 0.0033634768 0.0025645446 0.00071363273 0.0026873809 -0.0014958811 -0.0028970153 -0.0024618153 0.0037760814 0.002041078 0.0013992371 -0.0014260306 0.0009988575 0.001207558 -0.0016082316 0.0018197937 0.0036844753 0.0025213975 0.0011845509 -0.0010971009 -0.001257357 -0.002500776 0.0035610246 0.0029100522 0.002208179 -0.0019752244 0.0027804007 0.0005795671 0.00088617683 0.00040608406 0.0020167388 0.0035091727 -0.0021765132 0.00019674347 0.0005971105 -0.0036534334 -0.0011537749 -0.001043706 -0.0016346537 0.002434656 0.0028569296 0.0009734093 -0.0031557886 0.00064769166 -0.0019658727 0.0033839175 0.001674223 0.00025792012 0.0027270906
25 -0.0027936392 -0.0013721285 -0.0022996832 -0.0013533102 -0.0034669954 -0.0009984592 -0.0020737615 -0.002826596 0.0036111495 -0.00052989257 -0.0014569637 -0.0022850286 7.060194e-05 0.003022949 -0.0008447683 -0.0032737544 0.0021306577 -0.0019786642 0.0022607574 0.0034437298 0.002903636 -0.0010800204 0.002756036 0.0025804357 0.0010769962 -0.0033631148 0.0011106048 -0.0011278036 -0.0036937364 0.0020514044 0.0019723494 0.00032879817 0.000755456 -0.0033131922 -0.0035262548 0.0015476886 -0.0031905214 0.0030520011 -0.00228478 -0.0019069918 -0.0031501676 0.002148459 -0.0020929915 -0.003133794 0.0022134264 0.0035141958 0.001611072 0.0033287313 0.002739779 0.00014639145 -0.0037215895 0.0026946734 0.0020126977 0.0014682804 -0.003312971 -0.0014671442 0.002625981 -0.0037502619 -0.00089731143 0.00319671 -0.0017657506 0.0024375932 0.002040997 -0.0015220935 -0.003272168 -0.0018041721 -0.00082854845 0.0018796466 -0.0035589682 0.00049117405 -0.00060919556 -0.0022444555 0.0019611116 0.0025982945 -0.0012519102 -0.0034968597 -0.0036732554 0.0020853707 0.0021768862 -0.0015503764 0.00024098466 -0.002189771 -4.2225125e-05 -0.003070683 -0.0006465931 -0.0007804821 -0.00031391135 -0.003665002 -0.003432396 -0.003620331 -0.0025221547 -0.0009656324 0.0032277296 -0.0026203708 -0.0013968686 0.001247945 0.00019676458 -0.00020820626 0.0007976871 0.001517168 -0.0032618644 0.0015017106 -0.0031247332 0.0010471166 0.0018114867 -0.0011901805 0.0012059581 0.0016898169 0.0023815949 -0.0014593301 -0.0018550787 0.00013589865 0.001638677 -0.0019068815 -0.003863275 -0.0011203623 0.002489636 -0.0005771748 -0.000561681 -0.0012299395 0.0010209617 0.0034123335 -0.0011547735 -0.0023799543 -0.0017514798 0.0038114756 -0.003342932 -0.00014554984
27 0.0021271429 -0.0038032765 -0.002578059 -0.0031917668 0.0006325521 0.0014859148 0.0016436584 0.0034041652 -0.002754683 0.0008685038 -0.0019478773 -0.0017602058 -0.0012002495 0.0032993713 -0.00047170732 -0.0023415494 0.0035566664 -0.0022743614 9.422835e-05 -0.003775124 0.0029267112 0.0016894158 0.0014137297 0.0035504617 0.00034248264 -0.0032436776 -0.0035718516 0.0032194536 -0.0019374753 0.0014341382 0.0005892918 -0.0030824193 -0.001577136 -0.0025997134 0.0021552807 -0.0023682273 -0.001891923 -0.0004362289 -0.0013812996 -0.0028269193 -0.0029148753 -3.848778e-05 -0.0008392874 0.00079250196 0.001239149 0.002805118 0.0037830835 -0.00051209686 0.0002485478 0.0023276557 0.0025709835 0.0022788448 -0.002510793 0.0033851948 -0.0007541385 -0.0030392811 -0.00070415507 0.0012135038 0.0032839752 0.0016941248 -0.0025417225 0.0037963088 -0.0020465476 -0.00030665845 0.00067490205 0.0002019006 -0.0026825888 0.002807119 -0.0007753046 -0.0008428484 -0.003546885 0.0029724957 0.0005170174 -0.003783141 -0.0022883562 -0.0034460777 0.0023757576 -0.002609629 -0.0018227145 0.0009931521 -0.0028351776 -0.00061108795 -0.00014587112 0.0034718302 -0.003529995 0.00061493914 0.0036817777 -0.001354489 -0.0038580773 0.0006961273 -0.0030283385 -0.0035711476 0.00091591483 0.0008480001 -0.0027790102 0.00023695895 0.0008728158 -0.0028332018 0.0029030787 -0.0028987352 -0.0038696157 0.00039243294 0.0028935894 -0.003643421 0.0021712338 0.0019904985 0.003280615 -0.0030099193 -0.0029748457 0.0024501022 0.001957597 -0.00026377174 -0.00093332847 -0.0015952411 0.0017948229 -0.0018078191 -0.00030977905 0.0011138809 -0.0025292705 -0.000606691 -0.0024941927 0.0029398855 0.0017720646 -0.003078748 -0.0026958748 0.002239907 0.0010737639 0.00026153986
20 -0.0005442001 -0.0014590734 1.4919939e-05 0.0008550626 -0.002816978 -0.0035986397 0.00343723 0.001804009 -0.002853034 -0.0015544546 -0.002255971 -0.0026923232 0.003906105 -0.0004902704 -0.0014334507 -0.00080995273 -0.0029301546 0.0013581665 -0.0013228891 -0.0030663968 0.0021290947 -0.0017288242 0.0026580363 0.00032339475 0.00150983 0.0028452808 0.0038362883 -0.0009756625 0.0012175716 -0.003163706 -0.0029409279 -0.0012459722 0.0010537166 -0.00092222885 0.0026352557 0.0017922784 0.003621738 -0.0028631897 -0.0026381765 -0.0039026805 -0.0034978718 -0.0021066202 -0.0024942951 0.00012667656 0.0018420058 -0.00010123497 0.003233455 0.00031445266 0.0011117117 -0.0027739892 -0.0036442918 0.0002469114 0.002487041 -0.0035257896 -0.00072722073 0.00063108746 0.00034247263 -0.0037396296 -0.0031739261 0.0022355919 0.003884844 0.0016215272 0.0013441385 0.0012190297 -0.00064398616 -0.000696145 0.00017976278 0.0024276406 -0.0027876818 0.002990041 -0.002088946 0.0015652097 -0.0017715701 -0.00043486283 -0.0002853705 0.0021893214 0.0017018311 -0.0008497057 0.0013042702 0.002641898 0.0009663365 -0.0033531075 -0.00037803297 -0.0035109776 0.002524969 0.0036779295 -0.0029014158 0.0013954748 -0.0023710346 0.0018462634 0.0024087809 0.00043538737 0.00047843484 -0.0010306134 0.0012648691 -0.00024583717 0.002089234 -0.000631709 -0.0028001864 0.0033975164 -0.0022345257 -0.002984347 -0.0033541473 0.0033427721 -0.0005525958 0.0024839002 -0.0007130857 0.000542452 0.0031141804 0.0029072755 -0.0019689517 0.002361727 0.0005330439 0.001758691 -0.002317039 -0.0018734455 0.00307036 0.0020030236 0.0004246641 0.00082592695 -0.00053312455 0.0037558954 -0.00014556838 -0.0029620756 0.0013573832 0.0020854 -0.0027454079 0.001127376
21 -0.0031451564 0.0036464117 0.00027573665 -0.0036324763 -0.003539918 -0.00073255086 -0.0010523546 -0.0026446825 0.0005026234 0.0037268721 0.00040422528 0.00027994593 0.0006840045 -0.003364054 -0.00037519928 0.00051616086 0.00018229043 2.9046223e-05 0.0020997575 0.0007136476 0.0023344653 -0.00042518135 -0.0012401855 0.0019292092 0.0004867978 -0.0012218198 0.0015572748 0.00048822747 0.00031437338 -0.0001517817 0.0028541598 -0.0010413813 0.00017764137 0.001686314 -0.0030963337 -0.0023735778 -0.00088277896 0.003648295 0.0027395955 0.0013117987 -0.0028984095 0.0036305748 -0.002783038 -0.0023832854 -0.0031258094 0.0012213733 0.00070729194 0.000991642 0.0029218951 -0.00071682135 0.0032608698 0.001992069 0.0027205572 -0.0024862401 -0.0011280498 0.0016933229 0.0003469706 -0.0033555941 -0.0036852183 0.0030911842 -0.0022273385 0.00014524414 0.0007098648 0.0028584348 0.003712403 -0.0011342664 -0.0004732947 -0.0035103913 -0.0020257996 -0.0036967504 0.0032200671 -0.0038644187 0.0007660377 0.0017679147 0.0024111401 0.00015669169 -0.0026112425 -0.0028468866 0.0015892637 0.0027679037 -0.0018216212 0.00090173155 -0.0014675495 -0.0037360676 -0.0026748949 -0.002101688 -0.0023588734 -0.0020557137 0.0034750558 -0.0027426565 0.0032319112 0.0015521175 -0.0021686996 0.0035732954 -0.0001223007 -0.0015247614 -0.00253709 0.0020209942 0.0009948037 -0.0004063099 -0.0013359357 -0.0018331911 -0.00094945624 0.003447677 0.003829065 0.0023081903 -0.000554759 -0.0029566332 -0.0014017635 -0.0021934924 0.0039019845 0.002988577 -0.00086642825 0.0016176746 -0.001936408 0.0035108237 -0.0035728684 -0.00044844038 0.00094935193 0.003581576 -0.0004244291 -0.0015162511 0.00017234347 -0.0037528644 0.0026770288 0.0009064167 0.0030401964 -0.0033563927
22 0.0024777038 -0.0018552996 -0.00078066153 0.00010026788 -0.00055841636 -0.002629706 -0.0010685195 -0.0011421148 -0.0024115343 -0.0011515454 -0.0013705473 0.001109452 0.0021118617 -0.001984439 0.0022403528 -0.0012973786 -0.002632866 -0.0011214274 0.0037116774 0.003260897 0.0025153875 -0.0003012648 0.0033456695 0.0004265779 -0.0029951008 0.0034160574 -0.0009997371 -0.0038702467 0.0019107001 0.002618408 -6.717155e-05 -0.0026122045 -0.002896118 6.5843335e-05 -0.001151074 -0.0027294618 -0.0009250911 -0.0014536072 -0.0022751687 -0.002955815 0.0035399979 -0.00366099 -0.0030359735 0.0028821959 0.0021941974 0.0037862011 -0.0033645367 0.0023888652 0.0027772908 -0.0017460372 -0.0023702031 -0.0021062316 -0.0033651153 -0.0014749966 0.0034813643 0.0006084004 0.00267817 0.0031343207 0.0020852175 -0.0030539639 0.0015906545 0.0016230181 0.0018489108 0.003246924 -0.00071280816 0.0011011974 -0.0037935395 0.0019141848 0.0036608563 0.0030763529 -0.0016329003 0.0019638927 -0.00043364448 -0.0014761711 0.0037808854 0.0017582601 -0.0028797986 0.0016944375 0.0029041725 -0.00061037735 -0.0028243214 -0.0011449341 0.0026226016 -0.0036909485 -0.0002497161 -0.002418836 0.002886343 -0.0032669618 0.002454312 -3.964004e-05 0.0019919167 -0.0016474689 0.00015936972 -0.003432397 -0.0005444485 0.00060714793 -0.00080809754 0.00048728447 0.0028562427 -0.002562291 -0.0006890615 0.000850033 0.0018679315 0.0029145125 0.0011297459 0.0027085957 -0.0004986523 0.0022912275 9.603198e-05 0.0005210464 0.0027436775 0.00036069247 0.0024572674 0.0029853603 -0.0015270372 -0.00037628668 -0.002685766 0.00013607985 -0.0025274847 -0.0011602046 0.0016428271 -0.001923767 0.0013980074 -0.0021463896 0.0012627991 0.00048103306 0.002147335 0.00050161296
23 0.00071562116 0.0029150355 -0.0036992363 0.001217597 -0.0006145055 0.0027170333 -0.0009800175 0.0031933135 0.0017386035 -0.001574424 -0.0015647347 0.00036300818 0.0007187922 -0.0028786012 -0.0028365967 0.0022372198 -0.00046112307 0.0029061292 0.0017495103 0.0037089349 -0.0012621847 -0.001499985 -0.0032857517 0.002636473 0.0009380071 -0.00070795097 -0.0033355795 -0.0030524128 -0.0035163169 0.002322295 -0.00056771835 0.0010657065 -0.0007372977 -0.00021589157 -0.0033582062 -0.0023835944 0.0015731712 -0.0024535104 -0.0028342085 0.00056258024 -0.0006379427 0.0003476481 0.0014988735 0.0016780825 0.002298208 -0.0014934598 -0.0015262099 0.0031371077 -0.0022892691 -0.00074011856 0.0011435266 -0.0010827039 0.0027546254 -0.0032004502 -0.00019297986 -0.0034078204 -0.002101076 -0.000472815 -0.00021513482 -0.0035294092 0.0004015593 -0.0016343788 0.002936656 0.00090035296 0.0029155964 -0.00062615913 0.0021118866 0.0031938942 0.0012946203 0.0031426293 0.00030445564 0.00071562076 0.0037601027 0.00055719056 -0.0034871588 0.00044774072 0.002147818 0.00083293876 0.003580696 0.0016864064 0.003795384 -0.0022795575 0.0030542132 -0.0005028727 -0.0014307555 0.0030229038 -0.0020381259 0.0012155061 -0.002660355 -0.0016179595 0.001102565 0.0012002822 -0.0032611769 -0.0002473383 -0.0038680248 -0.0021495873 0.0011164135 -0.0015008673 -0.0013884648 0.0035362267 -0.001212365 -0.0011948936 0.003110356 -0.0033118671 -0.0007849165 -0.0033175594 -0.0031460067 -0.0019506384 0.001988715 0.0012107133 -0.0035506985 -0.002517448 -0.0015041648 -0.0031247444 -0.0012487365 -0.0010539215 -0.002548139 0.0014035872 0.0006508662 0.0003249855 0.0014856143 0.0026870004 -0.0023979435 -0.0022644736 0.0021170238 -0.0030198265 -0.00037923988 -0.00041290116
28 -0.0032410505 -0.002626418 0.0038980108 0.00027649623 -3.2335585e-05 0.0030853755 0.000446232 -0.0010273536 -0.0027103773 -0.00031683585 0.0015291804 0.0027084416 -0.00037362453 0.0026479845 -0.0022787363 -0.000453325 -0.0007521896 -0.0020573076 0.0022785994 0.0018089836 -0.0035413648 -0.00020731395 -0.00037982443 -0.0009641547 -0.001863605 0.002667715 -0.0033428688 0.00135305 0.0034008238 -0.00041146678 -0.00071824895 0.003139922 0.0019819604 0.003311608 0.0004523621 -0.0033328375 0.0022872426 0.0014262305 0.0015049189 0.00092253694 -0.0013595984 -0.0029746734 0.0022148795 0.0027321908 -0.0032299492 -0.0024802126 -0.0037138218 -0.0007975573 -0.003433914 -0.0023746723 -0.00375853 0.00056443916 0.002130663 -0.0026292854 0.0034171578 -0.00035088824 -0.00287182 -0.0029484602 -0.003665445 0.00028098462 -0.00020959124 -0.0021577394 0.0026530237 0.0022085055 0.0009867211 -0.0010364633 -0.001007746 0.00335592 -0.0031113625 -0.0037999796 -0.001534777 0.0031363396 -0.0030044182 -0.0033403297 -0.00092382904 0.0011623871 -0.00064369873 0.0029668717 -0.0035306413 0.0029367567 0.00014558327 -0.0037224018 0.001755054 0.0009192525 -0.0005821201 0.0036905662 0.0008041601 0.002838944 0.00030372012 0.0014322004 0.0011096948 0.00018448864 -0.0022898037 -0.0032431686 0.0027880499 -0.001408344 -0.00022995178 0.0021471088 -0.00029181596 -0.0028793532 -0.002478344 0.0035342816 -0.003401109 -0.0015973992 0.0020874508 0.0035328066 0.0034364685 0.0035353077 0.0010490856 -0.0034998057 0.0014868053 0.001169446 -0.0026783948 -0.00067960925 0.0010717593 -0.0023736143 -0.0027599076 -0.0011577607 -0.001150088 -0.0020438556 0.0003610301 -0.0013901927 0.00028411174 0.0027085086 -0.0029395563 -0.0035561598 0.00096310937 0.0019797175
29 -0.0009440329 -9.658286e-05 -0.0022068038 -0.0015463147 0.0017174607 -0.0021686705 -0.00016328266 -0.0031899852 -5.4541415e-05 0.0013104172 0.0016746602 0.0034729512 -0.0019476204 -0.0013528555 5.375534e-06 -0.0022113305 -0.0034866217 -0.0035308173 0.002198344 -0.0004701965 0.0019681542 -0.0017028527 -0.0034841895 -0.00095717644 -0.0028615242 -0.0017677483 -0.00027010628 -0.0018378132 0.0029640133 0.0023169895 0.0027809164 -0.0011201061 0.0024073685 -0.00042034214 -0.002785677 0.0009449493 0.0035076772 0.0014593664 0.0019234704 -0.0036665932 0.0035692828 0.0022481726 -0.0037732155 -0.0036820227 0.0022232549 0.0038034837 -0.0017080609 -0.00068217696 -0.0024229274 0.00033460266 -0.0011457647 -0.00082309305 -0.0022573962 3.6640784e-05 -0.003884979 0.0038952574 0.0038923272 0.0025879978 0.0015448447 0.0015955006 0.0012448013 -0.0032598623 -0.0024386244 0.00010394897 -0.0031728633 -0.0022085821 -0.0036853258 -0.0012599583 0.0025061017 0.0035454724 -0.0029929145 -4.610443e-05 -0.0033546365 0.002402343 0.0007652139 0.0035003647 0.0031811483 0.0005386876 0.0012813191 -0.00010699575 -0.0034900298 0.0025239883 0.002324236 -0.0028340144 0.0010678844 0.00096895866 0.00252849 -0.0033475037 0.00026771947 -0.0036206364 0.0010100681 -0.0029213536 -0.00073118525 0.0013087892 0.0036077562 0.0031453194 -0.002816787 0.0032084594 -0.0003709378 -0.0032602686 -0.002499727 0.0027025372 -0.00097115274 0.0008283158 0.0013652655 0.00028985407 -0.0029328421 -0.0028889233 0.0011475373 0.0016633439 0.0022074073 0.0006427958 -0.0031009556 -0.0019258829 -0.0031236627 -0.0033745365 -0.0017115425 -0.003216475 0.0032213666 -0.0004496275 -0.0012340548 -0.0007849409 -0.0027408954 -0.0023133028 0.002855646 0.0021941816 -0.0015631993 -0.0032890895
1 -0.0038933957 -0.0038293623 0.0036863957 -0.002689358 0.0017011744 -0.0037727947 -0.0006616864 0.002730175 0.0031078928 0.00021495875 -0.002323069 -0.0007344824 0.0021829263 -0.0015738531 -0.001955902 -0.0023458952 0.0022217096 -0.0016795278 0.0036754527 -0.0019896615 0.0014963006 -0.0003473503 0.0007223543 0.0014297859 0.0008301179 0.0010476501 0.00241657 0.003585455 0.001496723 -0.0020756046 -0.0037445654 0.002295836 -0.0002834898 0.0008507472 -0.0017042077 -0.0030164765 -0.0038035214 -0.0017505902 0.0035305475 -0.0039025443 -0.002658862 -0.0028771798 0.002513098 0.0022354175 -0.0012862546 -0.0026670052 -0.0023406078 0.00039156337 0.0034914587 0.0030795883 -0.0032654228 0.0033724825 -0.0013769261 0.0037715305 -0.0033432997 0.00082198746 -0.000378826 0.0035325568 -0.002677708 0.001728018 0.0018531021 -0.0037634121 -0.0028478287 -2.7881728e-05 -0.0028499921 0.0010253405 0.00085409736 0.001837696 -0.0034584047 0.00011806836 -5.4146207e-05 -0.0035030183 0.0035662258 -0.00013746327 -0.0026049803 -0.002265682 0.002895337 -0.0024283726 0.0021282784 -0.0036432878 -0.0014581893 -0.0033039816 0.00021461576 -0.0029320717 -0.001687208 -0.0031383054 -0.0013774101 -0.000569706 0.0027636448 0.0008173212 0.000584718 0.00045342758 0.00051790965 -0.00024733364 -0.0007194086 -0.000867153 -0.0004233056 -0.00264642 0.003087436 0.0014717667 -0.0024818343 0.002677803 0.002226419 -0.0010171853 0.0022094634 0.0034965747 0.0027967873 0.00211488 -0.0016469124 0.00093423156 -0.0014833276 -0.0020170095 0.0009972714 0.00341401 -0.0017587545 -0.0019155054 0.0029527587 0.0018534 -0.003014609 -0.0019197377 -0.0004769149 0.0023045407 -0.003208562 0.0004626047 -0.0012600862 -0.00097012037 -0.0010891275 0.0008669486
5 0.00056667073 -0.0033978831 -0.0038874866 -8.071114e-05 0.0029181438 -0.0012032944 0.0034132733 -0.0033678592 0.0036407888 -0.0026397922 0.002979617 0.002891083 -0.0028162908 0.0009555027 0.0020989547 -0.0033485107 -0.0019577174 -0.0030905257 -0.0011945872 0.0019690057 0.0021128736 0.0031453772 -0.0035356488 0.0038872142 0.0013833591 -0.002774768 -0.000601983 -0.0032499451 -0.0011427582 -0.00084738375 -0.0021722158 -0.001262777 -0.0021787349 0.0015083421 0.0023107883 -0.0029003338 0.00088686426 0.0015757548 -0.0009389957 0.00020959355 0.003401311 -0.00061336695 -0.0020848382 -0.00032175085 -0.0024592697 0.0003683638 0.0005343172 -0.0008534474 -9.0976486e-05 -0.0018469751 -0.000777964 0.0031778757 0.003208111 -0.0035327577 0.0023019284 -0.002272301 0.0022122683 -0.0012385867 0.0026246312 -0.0036917918 -0.0014911507 -0.0024579267 0.0023500654 0.0027635726 -0.002907976 0.00042747133 0.0031045794 -0.00082702667 0.0015232414 -0.0027958632 -0.0018247424 0.00054966717 -0.0025370526 -0.003165492 0.00091494276 -0.0029174273 -0.0022784008 -0.0031382644 -0.0031821346 -0.0034110954 -0.0026572542 0.0003986835 -0.0014804733 -5.093686e-06 -0.0022506649 -0.0037554353 0.0022720452 0.0035305638 0.0018488198 3.1662043e-05 0.0028935072 -0.0013366895 0.0015639886 0.0012059149 -0.0027495779 0.0010555539 -0.0031720032 -0.0024775022 0.0034441021 0.0036308612 -0.0038412304 0.00012029028 -0.0018945733 -0.0037309867 -0.0036027313 -0.0012229899 0.0013214386 -9.417194e-05 -0.0030921805 -0.0011728675 -0.0023909383 0.0002266337 0.0012099851 -0.0027269619 -0.002307166 0.0033452795 0.0034979228 0.00056377565 0.0033137295 0.0014475809 -0.00037891173 0.0016146152 0.0008669843 -0.003687238 -0.0032305818 0.0019614655 -0.0017130554 0.0037636466
6 0.0010225608 -0.0009859726 0.0009071614 0.0035785865 0.00042999492 0.0012524035 0.00192245 0.0024125797 -0.00048060768 0.00041611822 0.00130332 -0.0007975088 -0.0011997619 -0.0017797218 0.002121937 7.7223274e-05 -0.0010359604 -0.0026827618 0.0018119753 -0.002569956 -0.0013191308 -0.0024316725 -0.001040516 -0.0032374326 0.002874022 -0.0021541726 0.0012819077 -0.003602158 0.00039662144 0.0033107214 0.0005471624 -0.0029767668 0.0021188222 -0.0007127374 0.0011853062 0.00017727389 0.0007492571 0.0032715758 -0.0035636844 -0.0039034633 -0.0018027057 0.00210451 0.003629906 -0.0024299137 -0.0035768736 0.00122693 0.0024408682 -0.0035438035 0.003605978 0.003034658 -0.00021789872 0.0021425157 -0.0034661412 0.00023415513 0.0028805693 -0.002034936 -0.00023897343 -0.0018277348 0.0025641723 -0.0034466723 0.0038000355 0.0023339018 0.00017336593 0.00014950079 0.00040874595 -0.0031438705 -0.0029097744 0.00035353136 -0.002504245 -0.0026620573 0.0021404102 -0.0006675921 -0.0022029104 0.003567359 0.0022725654 -0.00047757578 0.0018743828 0.003564412 -0.00092327315 0.001209923 -0.0033035465 0.0028722417 0.0020640306 0.0012729779 0.003674757 -0.0037439682 0.0029105428 -0.001455479 -0.0011190666 0.0002111677 0.0025361388 0.0013420153 0.0018147356 0.002410695 -1.5614698e-05 0.0010762591 0.0012888259 -0.0038426376 0.0025482455 -0.0018420266 0.002803851 -0.0016266861 0.00029124462 0.00035035057 -0.002450367 0.0027352255 -0.00084267644 0.0036323308 0.0021901561 -0.0012518328 0.0027741669 0.0017609505 -0.0007050929 0.0020820745 0.0008374595 0.0034338976 0.0016543111 -0.002222471 0.00023953812 -0.0007503947 0.00082279445 -0.001930749 0.00257874 -0.0038386956 -0.0033803661 0.00106777 0.0037783738 -0.003652235
9 -0.0011815361 0.00054051337 -0.0032810841 -0.0009247447 8.340274e-05 3.159234e-05 -0.0005191623 0.0018884925 0.003717663 -0.00057816587 0.00079692376 0.0030675791 0.00042413833 -0.003566589 -0.0011116178 -0.00091149507 -0.0017757738 0.002670891 -0.0018917549 0.0012899146 -0.0035931454 0.0032882004 0.003773697 -0.0036245699 -0.0014841706 0.002432864 -0.0015321376 -0.003733997 -0.0009147216 0.0019017287 0.0012794923 0.003358064 -0.0020679135 -0.0021954507 0.003645603 -0.0021320593 0.0030475794 -8.873482e-05 -0.0035465753 0.0028594083 -0.0033496316 -0.0034839916 0.0014446619 0.0030965528 -0.0027836543 -0.0020934825 0.00020811288 -0.0021687255 -0.0018404073 -0.0037150295 -0.002475483 0.00086640567 -0.0024184159 0.0008028472 0.0033639066 -0.0011777167 -0.0016610661 -0.0002455823 -0.00079928606 -0.002236322 0.00017947164 -0.00029822503 -0.0028621277 0.0016397703 0.0021175737 -0.001633532 0.0018090535 -0.00012283266 -0.0012096763 0.00033033203 0.0016158834 0.0031305314 0.0034538908 -0.0014758651 0.003092382 -0.0018461122 -0.0026600184 0.0036411649 -0.002964725 0.0022995132 0.0027552103 -0.0010003347 -0.0034258296 -0.0037456583 -0.0014155698 -0.00042458388 0.0002443159 0.0001902158 -0.0021851824 0.001471716 0.0019872657 -0.0013457749 0.0037176528 0.003600547 -0.0006677774 -0.0037838302 0.0021000039 0.00013568392 -0.00013404677 0.0017511802 -0.0033755063 -0.0032088372 -0.0029418117 0.00093685224 0.00076727103 6.493043e-05 -0.0018079709 0.0032381858 -0.0038704723 -0.0030307453 0.0029228104 0.00039386193 0.0034194754 -0.0013395281 -9.462181e-05 -0.002230414 -0.0032498217 0.0031845158 -0.001535909 0.0027894464 -0.0015773328 -0.0020379745 -0.001550418 0.0009665795 -0.0021759414 0.0032142128 0.00025208187 0.001558816
11 -0.0031999275 -0.0025307746 0.0014628128 0.0012504959 0.0020303556 -0.001550938 -0.0028260178 0.0032792585 0.0026224682 -0.0031651855 -0.00064898696 0.000833442 -0.002108202 0.0023405736 0.0036459933 -0.0032698736 -0.0014200301 -0.00072537543 0.0004871988 -0.0031227982 0.0025307336 -0.0010483383 0.002375401 0.0005724487 -0.001125844 -0.0021985627 -0.0017966756 0.00034644798 -0.0026028843 -0.0027989317 0.0020955577 -0.0005332947 0.0022895776 -0.0036426787 0.0019394214 0.0034753843 0.0035328602 0.002462664 0.00010665314 0.003532092 0.0024633505 0.00277366 0.0036519468 -0.00033934307 -0.001350211 0.0022337905 0.0029650298 0.0027380125 -0.0014293203 0.0017437191 0.0016262201 0.0008770447 -1.0408232e-05 -5.5349512e-05 -0.00017681804 -0.0027171262 0.0008606132 0.0025626423 -0.003755675 0.0011318306 -0.0002554932 -0.0023099035 0.003722167 0.0026968673 -0.0029574074 0.001195262 -0.0038303593 -0.0007754362 0.002582952 -0.0034082572 0.00043640166 -0.00040286206 -0.002766318 -0.0012084295 0.003640293 0.0012486567 0.0010540794 -0.0027243148 -0.0026405181 -0.0012678407 0.001466684 0.003540245 -0.00077597523 -0.0010789632 -0.0034063023 -0.00036559624 0.0037504612 0.00025888832 0.0017628007 0.0006913499 -0.0014418601 -0.002872017 0.0012236645 0.0029036542 0.0016758188 -0.0022975858 0.00204362 -0.0006244322 -0.0011642781 0.0032451444 0.003418085 0.0035502836 -0.0012531785 0.0009115293 -0.0013132297 -0.0005386879 0.0019576002 -0.0029149118 0.0017148196 -0.0024854103 -0.00029297965 0.003297413 -0.0038581 -0.0020289237 -0.00039332066 -0.0018737412 -0.0026860046 0.0019306574 -0.0008997521 -0.0021446866 0.0011581525 -0.0025612079 0.00366762 -0.0036363043 -0.0012623961 -0.003571916 -0.0023032678 0.00030221057
10 0.00080670294 -0.0003877714 -0.0020033217 0.0008622701 0.0016836276 0.0037312226 0.0022315609 -0.00019013899 0.0032586071 -0.0027881083 0.0021411728 0.0023838605 -0.0024574825 0.0029820262 -0.0015063776 0.0030949097 0.0013090963 0.002586116 -0.002068829 0.0008897987 0.0019348223 -0.0005546909 0.00065123563 0.0037001623 -0.0015868777 -0.0008933337 0.0014906176 -0.0026681528 -0.0010609211 -0.0024259947 -0.0030555313 -0.0032704268 0.0015384379 0.0029307122 -0.0030887735 -0.0006627454 0.0026797294 -0.003430866 -0.0028950851 -0.003285687 -0.0022095214 -0.0013452594 0.0032959704 0.003271162 0.0031727036 0.003827645 0.0038271486 -0.0008784927 0.0039018053 -0.0030580885 0.00037470524 0.0011379124 0.003100378 -0.0016390971 -0.0012314148 0.0023635027 0.0016750357 -0.0035162822 -0.0034282503 0.001705158 0.0013822261 -0.00014439208 -0.0036972768 0.0009786082 0.0003298814 0.0011413526 -0.0019371719 -0.0022648673 -0.0034182447 -0.0029597238 0.0027493865 -0.0030648839 0.0036091094 -0.0003042922 0.0035731301 0.0015156738 -0.00016782124 -0.00176106 -0.0031173273 -0.0001485698 -0.0036620907 -0.002466135 0.00023219829 0.0025712368 -0.0030826349 0.00088625797 -0.0028347261 -0.0026182295 -9.439012e-05 -0.0017897239 0.0032688784 0.000800267 0.003366914 0.002925617 0.00035325205 0.0024212988 -0.00054633775 -0.0034193827 0.0008139405 0.0024318458 -0.001496083 -0.0015122446 -0.00012970318 0.0010734786 -0.0019518513 -0.0009940157 0.003518585 0.003611611 -0.002806771 0.002005027 0.0034765434 -0.0037903315 0.0019181236 -0.0013345805 0.0016942311 0.0002613046 0.0010745262 0.0028911089 -0.0010531923 -0.0029475961 -0.00027350226 -0.0015584406 3.871178e-05 0.0003448681 0.003886153 -0.0010851076 -0.0021310344 0.0010575872
13 0.0026854167 0.00038628085 0.001360963 -0.0027287554 -0.0011545916 -0.00068668654 0.0011443438 -0.0025725642 0.0009236546 0.0027080316 -0.0021449116 -0.0025725532 0.0017094689 -0.003287343 0.0011187975 -0.00035436428 -0.0030083202 -0.0013203807 -0.0012843503 -0.0029200856 0.0036728538 -0.00014118687 -0.0036084806 0.0009988002 -0.0036572793 -6.4639775e-05 0.0036320908 0.0025792003 0.00093136524 0.000104135725 -0.0023946234 0.0020994633 -0.0010759059 -0.0021966745 0.00022151125 -0.0023369188 0.003598398 0.0037582142 0.00057500694 -0.0007822223 0.0020473793 0.00029626422 9.386834e-05 0.001770259 4.403191e-05 0.00328627 0.001159159 0.00081603834 -0.0019398738 0.0024900855 -0.0025832132 0.0027061608 0.0021237065 0.0025543796 -0.0027139317 -0.0025141502 -0.003191661 -0.0025989253 0.0024182468 -0.0026152343 0.0024280357 0.0005419517 -0.0022637134 -0.0028825772 0.0026277974 -0.0027792624 -0.0024093252 -0.002435435 0.0030966774 -0.0035381443 -0.0024741117 -0.0016773364 -3.4673645e-05 -0.0022851122 0.001387817 -0.003376116 -0.0011812286 -0.001597346 -0.003001029 -0.0027498698 0.00036951507 -0.0027226366 -0.00095289154 -0.0018234224 -0.0036460513 -0.00018834216 0.0023995927 -0.00064027694 -0.0028571608 0.003903277 0.0038653803 -0.0016433665 -0.002671711 -0.0032807675 0.0006115676 -0.0020501392 -4.7830796e-05 -0.00377853 -0.0027009647 0.00016096311 0.0028502042 0.0002511029 -0.001034809 8.001793e-05 -0.0012462471 -0.0038338858 0.002931285 -0.0022541152 -0.00024826263 -0.0037942855 0.0036462678 -0.00065617746 -0.00090277963 0.002934132 -0.0031573786 -0.0028009545 -0.0029791 0.0032250031 0.0012946447 -0.002125685 0.00083982333 0.0027470095 0.0037231538 0.0015463136 -0.0013761511 0.0025681667 0.0017964061 0.0029185025
12 -0.0037405922 -0.0031440747 0.00038881708 -0.0027151082 -0.0020506466 -0.0014245404 -0.0025424114 -0.0036332747 -0.0024018537 0.0026010189 0.0037267902 0.0038863567 -0.00094244845 0.0019458986 0.00020558093 0.0026868843 -0.0035045443 0.0011885144 0.0024484626 -0.0036255314 0.0014300878 0.003081335 0.001473715 -0.0020145974 -0.0035925854 -0.001575507 0.0021732969 0.0011239204 0.00046405563 -0.0005160531 0.0017302525 0.001495683 -0.0038486973 0.0011183094 0.0012419675 0.0027753452 -0.0011272557 0.0024607095 6.3025676e-05 0.002000001 9.216429e-05 -0.00022175773 0.0019707142 -0.001089238 -0.0010079162 0.003660344 0.0017417138 -0.00086677156 -0.0032077043 -0.0013793103 -0.0016097671 0.0017644793 -0.0007391051 -0.003792082 -0.0031378085 -0.003279838 0.00049493206 0.00051408506 -9.464024e-05 0.0015544314 0.0025552693 0.0015735383 -0.00257607 0.0021700389 -0.0031459457 0.00043001724 0.0023381624 -0.0004239291 0.0033234197 0.0037016657 0.003897931 0.0020874448 0.0013147342 0.0011967691 0.000874546 -0.00039136413 0.0035520645 0.003222275 0.0006543875 0.0036936882 -0.00079392776 0.0009937469 -0.0031634576 -0.0021220034 -0.002876836 0.0032960004 -0.00078762823 -0.00083481846 -0.0025226667 -0.0030954466 -0.00037172786 0.0028221116 -0.0014585018 -0.001242278 0.0017796113 -0.0024011869 0.002652742 -0.0036703306 0.0013836841 -3.0518713e-05 -0.003893641 -0.0032947017 0.0003901802 0.0008369617 0.0002617435 -0.0038270259 0.0004219857 -0.0005092337 0.0036548204 -0.0033844472 -0.003328973 -0.0002733875 -2.5663669e-05 0.0024276953 0.0009840267 0.0029971055 -0.0013555267 0.003288634 -0.00369947 -0.0033131787 -0.0016708731 -0.0018911914 0.0017575008 0.0025831326 -0.0014415686 0.0004663059 -0.0038674017 -4.473726e-05
15 -0.0035724698 -0.0022878791 0.002721214 -0.0030871907 0.0009471598 0.0037279031 0.0019176312 -0.0035595482 8.905578e-05 -0.0014108254 0.0015537902 -0.00035165195 0.00024248452 0.0015239421 0.0016248362 -0.0014160975 -0.0028755746 -0.0020081894 -0.0028972474 -0.00344179 0.0032378768 0.0018952519 0.00032819368 0.001095219 -0.0030197077 0.00011595783 -0.0024143055 -0.00015976597 0.0004132417 -0.0027814829 -0.002202294 0.0020581249 0.003107586 -0.0006332336 0.00041831518 5.3576237e-05 -0.0017701528 -8.522791e-05 0.003708136 0.0014343341 -0.0026921104 1.6319544e-05 -0.0007816356 0.00025981868 0.0026703628 0.00353922 -0.00380585 -0.0006680327 -0.0008449708 -0.0016224964 -0.00039504835 0.00021021643 -0.0005481806 0.0017891971 -0.0027247453 -0.00373161 -0.0039012562 -0.0036335762 0.0010105807 0.0028699515 0.0032842064 0.0032302674 0.0006377197 -0.00331078 0.0012131386 0.0035303386 0.0010335376 -0.00066182413 0.0031839178 0.0029741006 0.0020356784 -0.0020006506 0.0018144888 -0.003447297 -0.0024275312 -0.0010735684 0.0017058263 0.00014155923 -0.0038996164 -0.0031704614 0.00016350376 0.0024822487 0.00025859932 -0.0029058806 -0.0029611283 -0.0026881287 -0.0014027656 -0.0036075532 0.00012203544 0.0024034942 0.0016341237 0.002195085 0.0031291314 -0.0023349884 -0.0034510344 0.0023114267 0.0015636341 0.0037311749 0.0014879634 0.0033305185 0.002874278 -0.00033636304 -0.0028531114 0.0011386345 0.0023238454 -0.0030909097 0.0023084532 0.001270732 -0.00029268404 -0.0036903156 0.00035054501 -0.0008737772 -0.0015717725 -0.0029890544 -0.002470657 0.0031440759 0.0019372883 0.003905641 -0.0031853532 0.0028124913 0.002671874 -0.0031486542 0.0035866778 0.0027112036 -0.0038686227 0.0003784958 0.0018923659 0.0022337632
14 -0.001649933 -0.0022809121 0.0037665865 -0.003069394 0.0020419501 0.0013440705 -0.002192045 -0.0013348643 -0.00211942 0.002037641 -0.0037847883 0.0016620232 -0.001417411 -0.00027339757 0.00010236802 0.001355823 0.0021761463 -3.7373244e-05 0.0008749245 -0.002285439 0.0025530204 0.0038240615 -0.0001719742 0.0022061965 -0.0012517666 0.0019030647 0.002900207 0.0038574287 -0.0035340562 0.0029675087 0.0019529412 0.0011315078 -0.0013264964 0.0029250795 0.0024895864 -0.0013398563 -0.0014607917 -3.0017436e-05 -0.0012454453 -0.00019610664 -0.0033017427 0.0002526125 0.0017499233 0.0023502284 -0.00027341454 0.000987005 0.0011022531 0.0023159801 3.1686035e-05 0.0036641515 -0.0014482067 -0.00011865444 -0.0011096227 0.0021634365 0.00018856184 -0.0014548389 -0.0031576895 0.0036862479 -0.0026207364 -0.0020139571 -0.00035379722 -0.0029047285 0.0023780696 -0.0033318296 -0.0028340253 0.0023972876 0.0021919578 -0.002578081 -0.00050970813 -0.0019534046 -0.0027867076 0.0026984843 -0.0029245748 0.0036848728 0.003051019 0.0018365242 0.0013597888 -0.0006590334 -0.0005912953 -0.0033153922 -0.0018429235 0.0004902372 0.0024584155 0.0036993618 -0.0028735898 0.0032965415 -0.0015076667 -0.0013791306 0.0021593822 -0.00087499863 -0.0009998397 -0.0009154507 5.2525756e-05 -0.0010039068 -0.0020059205 0.003836719 -0.002575437 0.0033356044 0.0029879115 0.00076941936 -0.003033991 0.00012296074 -0.00042559 0.0020961151 -0.003249744 0.0023583581 0.0035252424 0.0035618786 -0.0036644563 -0.0009017307 -0.0034533811 -0.0029139149 -0.002225473 0.0016841753 0.0033924945 -0.0012222838 -0.0025713907 -0.0009219148 -0.0011866821 0.0013629989 6.142119e-05 -0.002029814 -0.00060129 -0.0030157357 0.0018638893 -0.001470283 -0.0021178129 0.00017527552
16 -0.00043121492 0.0014035591 0.00084975426 0.00012219697 -0.0010378944 -0.00024883915 0.0024545651 -0.0009708616 0.00013324822 0.0006902519 -0.0023186891 0.0015714832 -0.0017382829 0.0030941814 0.0030304913 -0.0022023257 -0.00355854 -0.003898076 -0.003783038 -0.00342128 -0.00063180854 0.0012690787 0.0024654302 -0.0013334726 0.0015321674 0.00040629657 0.0012524883 -0.00049025845 -0.0013293311 -0.0035068167 -0.0026963684 0.0019270979 -0.0011624309 -0.003660572 0.0016720846 0.0017263727 0.0035844627 -0.0029765544 -0.0022802004 -0.003705746 -0.0022748443 0.003270367 0.0023521855 0.00025286013 0.0019248496 -0.0013945668 0.002163354 0.0027685876 -0.0028052789 0.0038309447 0.0029513587 0.0008200001 0.0007552069 0.0017196415 0.0016186443 0.00025971534 -0.00023756766 0.0005871709 0.00059751986 -0.0034027875 0.0021544795 -0.0037679388 -0.0012592641 -0.0037036617 0.0018094063 -0.000989359 -5.5073917e-05 0.003349992 -0.0014407287 -0.0030292342 0.002939426 -0.0037698774 0.0010751962 -0.0022351963 0.0032756475 -0.0015042762 0.0033282954 -0.002396274 -0.0019102935 0.001356676 0.0036483696 -0.0019072746 0.0006567662 -0.001576429 0.0009889523 0.0035723557 0.0003641174 0.0031755627 0.001874208 0.00082522654 -0.0032660696 0.0013351147 -0.003819114 0.0013681334 0.00034402465 0.0023892927 0.0031081724 -0.0016024399 -0.0017559945 -0.0038675042 0.0035061787 0.0018731828 0.0038566168 -0.0022869557 -0.0023029114 -0.0027630557 -0.0020285551 -0.0006253425 0.0027481643 0.001468536 -0.0011974748 0.0036666442 -0.0037648373 0.0020594816 0.0017484484 0.0022066296 -0.0012346223 0.0026424704 0.0007909652 -0.0023601586 -0.0007595669 0.0016962885 -0.0018901854 -0.0020241458 0.003070826 0.0022003998 0.0005392632 0.0036841792
31 0.0017403421 0.0010984092 0.002990432 0.002526902 -0.0008601685 -0.0032960498 -0.00068660954 -0.0035885666 -0.003469012 0.00093231606 0.0031202866 0.003886284 0.0034945384 -0.0033838511 4.239446e-06 -0.003484274 -0.0037708832 0.0016095267 0.0015941722 -0.00015830569 0.0008345641 -0.0016078943 -0.0026661712 0.0029419817 0.0013081119 0.0010488536 0.002334068 0.0036253904 5.6865374e-05 0.00021298393 -0.002456944 0.003710903 -0.0036778804 0.0028866446 0.0021726363 0.0029393164 -0.0007837586 -0.0006252341 0.003449315 -0.0038205609 0.000559166 0.0024647347 0.00024458597 -0.001773319 -0.0015607268 -0.00011066888 -0.0026992722 -0.0030523518 -0.0011823028 0.0019365666 -0.0033560353 0.0029631744 0.00030822618 -0.0017000132 0.0009084475 -0.0020072667 0.0014004203 -0.0019845394 -0.0037656985 -0.0034847418 0.003179693 -0.0011578812 -0.0033067695 -0.0032070577 -0.0027512491 -0.0014997808 -0.0038791234 -0.0019920599 -0.0021479297 -0.00021975957 5.543059e-05 -0.0021304502 0.00024027021 7.5789285e-05 0.0022386902 3.4811863e-05 0.003728185 -0.0009084355 0.003507833 0.00210609 0.0014761097 -0.001588392 -0.002187889 -0.001964771 0.0013340923 0.00014620276 -0.0031518906 -0.0023512922 0.00037162573 -0.0028267119 -0.0038047147 0.003265574 0.0034587425 -0.0010491367 -0.0038935088 0.0004337043 -0.0027438537 -0.00022417502 -0.00064501003 0.0030280016 -0.003904294 -4.5253028e-06 8.642076e-05 -0.0033627648 -0.0018199439 0.00084893097 0.0015505953 0.002500451 0.0018432232 0.0003893876 -0.0028829738 -0.0037740981 -0.0021764971 -0.0026784374 0.001221994 0.002725594 -0.003258408 0.0035543256 -0.0036908193 0.002357376 -0.0023388448 -0.0021813775 -0.0021379478 -0.0035891703 -0.0007730362 0.002285833 -0.003590856 2.9088736e-05
19 0.0033892358 -0.0019242726 0.0034129028 -0.0019771673 -0.0009917704 0.0010328104 -0.00097544654 -0.0023694937 0.0020266576 0.00034179847 -0.0031899582 0.002378989 -0.0011260173 0.00093842874 -0.001331634 0.0010728831 -0.0030431699 -0.0032407779 0.0025579599 0.0035183702 0.001096191 -0.003243428 0.00023512013 0.0018138785 6.0023984e-05 0.0032241498 -0.0010532318 0.00045036306 -0.0012846468 -0.0013845627 0.00012361241 0.0012543935 0.0011660355 -0.003831201 -0.001029742 -8.345652e-05 -0.0038534766 0.0024861502 0.0026524365 0.0011364359 0.00034078743 -0.0006710849 -0.000100643854 -0.0013990037 0.0031581712 0.0015911746 0.0025371385 -0.0026515645 -0.00087840785 0.0014610916 -0.0014611455 -0.00073878886 -0.0033548363 -0.0017886983 0.003510906 0.0023774658 -0.0029600456 0.0019116573 0.0037449638 -0.0012363652 -0.00064282183 -0.0022708247 0.0030805534 0.0024278413 -0.000447955 -0.0032795242 0.0028516485 -0.00086497195 -0.002228603 -0.0023945777 0.00081945385 2.9194578e-07 0.0006076548 0.00080138695 -0.0021676584 -0.0037511198 0.0028766152 0.0021519433 -0.0031908345 -0.002950742 -0.0007891956 0.00043113407 0.00027215373 -0.003021114 -0.0020801611 8.430917e-05 0.002752784 0.0017169548 -0.002885283 -0.0015404692 -0.00058644084 0.002751951 0.0037593695 0.0021519938 -0.0019520039 0.0029455721 -0.00055807515 0.0004282801 0.00066427776 -0.0028406729 0.0021215056 0.0021545389 -0.0030162418 -0.002471114 -0.00087968115 0.00042461886 -0.00051348796 0.0002265543 -0.0008419248 -0.0012187699 -0.0020860839 -0.00019518628 0.00071337225 -0.002274413 0.003106032 0.0024753073 0.0036579377 0.0031043806 -0.0028332092 0.0028960928 -0.0012513351 -0.0012811071 -0.001854263 -0.0026143894 -0.0032773754 0.0008213155 -0.0034981102 -0.0026902303
18 0.001347558 0.0003351629 -0.0032659243 -0.001099243 0.0017161093 -0.0010044005 -0.003478862 0.0018895676 0.0026092844 0.0038795487 -0.0007676682 0.0027271206 0.003074075 -0.00032507168 0.0009820723 -0.0033316938 -0.0013773561 0.0016382479 -0.0029481952 0.003709409 0.0037994648 -0.00050621893 0.0038689442 0.0005832767 0.00327294 0.0033728434 0.0006412273 -0.0001034078 0.0017741248 0.0012428598 -3.1632302e-05 0.0023948778 0.0014003058 0.0024135516 0.0018446246 -0.0019721584 -0.001317802 -0.00036797926 0.0011138703 0.0031713964 -0.0012062566 0.0037735798 -0.0032045054 -0.0014319341 -0.0008949443 0.0028020125 -0.0034993289 0.0003673722 0.0016399362 -0.00193016 -0.00034214166 -0.0031234648 0.0031195139 0.003415972 -0.0005686486 0.0035138796 0.00066867325 -0.0035966055 -0.001847783 -0.001215134 0.0018034197 -0.0035850978 0.00011515495 -0.00061737484 0.0032344512 0.0007846381 0.00069525966 -0.0020135532 0.003254156 0.003471822 -0.0024129455 -0.00040170748 0.0027199173 -0.0036758233 0.0029379604 0.0022999777 0.003513586 0.002240149 0.0014838693 -0.00051861233 -0.0036205668 0.0022544498 0.0022246684 -0.0028325 -0.0031025147 0.0014341449 0.002863049 -0.00033461585 -0.0027108842 0.002903596 0.00053073355 -0.0028844113 0.003120603 -0.0031254855 -0.0039039017 0.0014555551 -0.0021301256 0.00290873 0.001692033 -0.0019492639 -0.0006832992 0.0027762095 3.813781e-06 0.0010100498 0.0005344357 0.00043991877 -0.0028388042 -0.0032439018 -0.0009075523 -0.0030249783 -0.0022784262 -0.0026219387 -0.0029108166 -0.0021808 0.00049008115 -0.0024417108 -5.279494e-05 -0.0031572487 0.0029464196 -0.0011079406 -0.00056934945 -0.0034117124 -0.0006999362 -0.0010801166 0.002265449 -0.0037493717 -0.0030423342 -0.002422926
